<?xml version="1.0"?>
<opencv_storage>
<!-- Created using Computer Vision System Toolbox(tm) for MATLAB(R) -->
<!-- Version 9.2.0.538062 (R2017a) -->
<!-- Compatible with OpenCV 3.1 -->
<cascade>
  <stageType>BOOST</stageType>
  <featureType>HOG</featureType>
  <height>32</height>
  <width>38</width>
  <stageParams>
    <boostType>GAB</boostType>
    <minHitRate>9.9500000476837158e-01</minHitRate>
    <maxFalseAlarm>1.0000000149011612e-01</maxFalseAlarm>
    <weightTrimRate>9.4999999999999996e-01</weightTrimRate>
    <maxDepth>1</maxDepth>
    <maxWeakCount>100</maxWeakCount></stageParams>
  <featureParams>
    <maxCatCount>0</maxCatCount>
    <featSize>36</featSize></featureParams>
  <stageNum>5</stageNum>
  <stages>
    <!-- stage 0 -->
    <_>
      <maxWeakCount>32</maxWeakCount>
      <stageThreshold>-8.5956633090972900e-01</stageThreshold>
      <weakClassifiers>
        <_>
          <internalNodes>
            0 -1 196 1.6266215592622757e-02</internalNodes>
          <leafValues>
            3.3957844972610474e-01 -6.7097532749176025e-01</leafValues></_>
        <_>
          <internalNodes>
            0 -1 220 1.6502343118190765e-02</internalNodes>
          <leafValues>
            4.8557132482528687e-01 -4.4446197152137756e-01</leafValues></_>
        <_>
          <internalNodes>
            0 -1 35 3.3387780189514160e-02</internalNodes>
          <leafValues>
            -3.1554609537124634e-01 5.2112478017807007e-01</leafValues></_>
        <_>
          <internalNodes>
            0 -1 223 3.2567486166954041e-02</internalNodes>
          <leafValues>
            -3.2165011763572693e-01 4.2754948139190674e-01</leafValues></_>
        <_>
          <internalNodes>
            0 -1 192 3.1467050313949585e-02</internalNodes>
          <leafValues>
            -2.8992521762847900e-01 3.6485889554023743e-01</leafValues></_>
        <_>
          <internalNodes>
            0 -1 215 3.8355581462383270e-02</internalNodes>
          <leafValues>
            -1.8559965491294861e-01 5.4069387912750244e-01</leafValues></_>
        <_>
          <internalNodes>
            0 -1 227 3.9026156067848206e-02</internalNodes>
          <leafValues>
            -7.7423572540283203e-02 6.9398635625839233e-01</leafValues></_>
        <_>
          <internalNodes>
            0 -1 128 3.2565485686063766e-02</internalNodes>
          <leafValues>
            -2.1759730577468872e-01 3.9525470137596130e-01</leafValues></_>
        <_>
          <internalNodes>
            0 -1 165 2.3727774620056152e-02</internalNodes>
          <leafValues>
            2.4028405547142029e-01 -3.8531002402305603e-01</leafValues></_>
        <_>
          <internalNodes>
            0 -1 148 2.3415308445692062e-02</internalNodes>
          <leafValues>
            -4.0521347522735596e-01 2.2605103254318237e-01</leafValues></_>
        <_>
          <internalNodes>
            0 -1 96 4.2316891252994537e-02</internalNodes>
          <leafValues>
            -1.7854401469230652e-01 5.4069483280181885e-01</leafValues></_>
        <_>
          <internalNodes>
            0 -1 99 2.0169217139482498e-02</internalNodes>
          <leafValues>
            2.6676276326179504e-01 -2.7448320388793945e-01</leafValues></_>
        <_>
          <internalNodes>
            0 -1 231 1.9447784870862961e-02</internalNodes>
          <leafValues>
            -4.3312358856201172e-01 1.8356813490390778e-01</leafValues></_>
        <_>
          <internalNodes>
            0 -1 15 1.1648118495941162e-02</internalNodes>
          <leafValues>
            3.6590477824211121e-01 -2.2000762820243835e-01</leafValues></_>
        <_>
          <internalNodes>
            0 -1 228 7.9889260232448578e-03</internalNodes>
          <leafValues>
            -9.4258624315261841e-01 8.4407262504100800e-02</leafValues></_>
        <_>
          <internalNodes>
            0 -1 145 9.5775984227657318e-03</internalNodes>
          <leafValues>
            4.6881571412086487e-01 -2.0208172500133514e-01</leafValues></_>
        <_>
          <internalNodes>
            0 -1 198 4.1744157671928406e-02</internalNodes>
          <leafValues>
            -1.5082143247127533e-01 5.8860266208648682e-01</leafValues></_>
        <_>
          <internalNodes>
            0 -1 179 8.9593473821878433e-03</internalNodes>
          <leafValues>
            -6.8000191450119019e-01 1.1754615604877472e-01</leafValues></_>
        <_>
          <internalNodes>
            0 -1 123 1.9181773066520691e-02</internalNodes>
          <leafValues>
            2.8458333015441895e-01 -2.8029239177703857e-01</leafValues></_>
        <_>
          <internalNodes>
            0 -1 43 1.8133593723177910e-02</internalNodes>
          <leafValues>
            2.6842632889747620e-01 -2.9085683822631836e-01</leafValues></_>
        <_>
          <internalNodes>
            0 -1 178 8.1011913716793060e-03</internalNodes>
          <leafValues>
            -8.6635649204254150e-01 8.4786117076873779e-02</leafValues></_>
        <_>
          <internalNodes>
            0 -1 144 1.9104683771729469e-02</internalNodes>
          <leafValues>
            2.0400737226009369e-01 -2.9786872863769531e-01</leafValues></_>
        <_>
          <internalNodes>
            0 -1 132 3.2889894209802151e-03</internalNodes>
          <leafValues>
            -9.5922887325286865e-01 7.9932585358619690e-02</leafValues></_>
        <_>
          <internalNodes>
            0 -1 63 1.7513319849967957e-02</internalNodes>
          <leafValues>
            2.8401160240173340e-01 -2.3743481934070587e-01</leafValues></_>
        <_>
          <internalNodes>
            0 -1 25 5.7222336530685425e-02</internalNodes>
          <leafValues>
            -9.6286535263061523e-02 6.7521023750305176e-01</leafValues></_>
        <_>
          <internalNodes>
            0 -1 171 1.9054913893342018e-02</internalNodes>
          <leafValues>
            2.7032640576362610e-01 -2.3419827222824097e-01</leafValues></_>
        <_>
          <internalNodes>
            0 -1 75 3.6135092377662659e-02</internalNodes>
          <leafValues>
            -1.7037209868431091e-01 4.1192644834518433e-01</leafValues></_>
        <_>
          <internalNodes>
            0 -1 11 4.2782127857208252e-02</internalNodes>
          <leafValues>
            -1.2947069108486176e-01 4.9476784467697144e-01</leafValues></_>
        <_>
          <internalNodes>
            0 -1 40 3.8812801241874695e-02</internalNodes>
          <leafValues>
            -1.2514185905456543e-01 4.7073709964752197e-01</leafValues></_>
        <_>
          <internalNodes>
            0 -1 82 1.9542442634701729e-02</internalNodes>
          <leafValues>
            2.5983002781867981e-01 -2.5439667701721191e-01</leafValues></_>
        <_>
          <internalNodes>
            0 -1 167 6.9436961784958839e-03</internalNodes>
          <leafValues>
            -8.7781488895416260e-01 8.9258939027786255e-02</leafValues></_>
        <_>
          <internalNodes>
            0 -1 180 2.0363904535770416e-02</internalNodes>
          <leafValues>
            3.6889186501502991e-01 -1.9592061638832092e-01</leafValues></_></weakClassifiers></_>
    <!-- stage 1 -->
    <_>
      <maxWeakCount>45</maxWeakCount>
      <stageThreshold>-8.3307296037673950e-01</stageThreshold>
      <weakClassifiers>
        <_>
          <internalNodes>
            0 -1 192 3.9779447019100189e-02</internalNodes>
          <leafValues>
            -5.3593426942825317e-01 3.1578946113586426e-01</leafValues></_>
        <_>
          <internalNodes>
            0 -1 181 3.7386659532785416e-02</internalNodes>
          <leafValues>
            2.1810312569141388e-01 -5.3507167100906372e-01</leafValues></_>
        <_>
          <internalNodes>
            0 -1 119 3.5820685327053070e-02</internalNodes>
          <leafValues>
            -2.2083914279937744e-01 4.8064333200454712e-01</leafValues></_>
        <_>
          <internalNodes>
            0 -1 97 3.2675102353096008e-02</internalNodes>
          <leafValues>
            -2.1824736893177032e-01 4.1248676180839539e-01</leafValues></_>
        <_>
          <internalNodes>
            0 -1 61 6.5095406025648117e-03</internalNodes>
          <leafValues>
            4.8483785986900330e-01 -1.7707960307598114e-01</leafValues></_>
        <_>
          <internalNodes>
            0 -1 93 5.5826518684625626e-02</internalNodes>
          <leafValues>
            1.8418692052364349e-01 -6.4581954479217529e-01</leafValues></_>
        <_>
          <internalNodes>
            0 -1 108 1.4594030566513538e-02</internalNodes>
          <leafValues>
            3.4157273173332214e-01 -2.7544334530830383e-01</leafValues></_>
        <_>
          <internalNodes>
            0 -1 14 1.7584778368473053e-02</internalNodes>
          <leafValues>
            3.0041217803955078e-01 -2.6100662350654602e-01</leafValues></_>
        <_>
          <internalNodes>
            0 -1 85 1.1846978217363358e-02</internalNodes>
          <leafValues>
            2.9831480979919434e-01 -2.2528937458992004e-01</leafValues></_>
        <_>
          <internalNodes>
            0 -1 59 1.1676318943500519e-02</internalNodes>
          <leafValues>
            -5.3363960981369019e-01 1.2893676757812500e-01</leafValues></_>
        <_>
          <internalNodes>
            0 -1 223 2.1506231278181076e-02</internalNodes>
          <leafValues>
            -4.9273669719696045e-01 1.3255377113819122e-01</leafValues></_>
        <_>
          <internalNodes>
            0 -1 153 3.5726271569728851e-02</internalNodes>
          <leafValues>
            -1.4393967390060425e-01 5.7382750511169434e-01</leafValues></_>
        <_>
          <internalNodes>
            0 -1 33 6.6722214221954346e-02</internalNodes>
          <leafValues>
            -7.4959330260753632e-02 7.4760091304779053e-01</leafValues></_>
        <_>
          <internalNodes>
            0 -1 0 2.0426061004400253e-02</internalNodes>
          <leafValues>
            1.9496881961822510e-01 -3.1604674458503723e-01</leafValues></_>
        <_>
          <internalNodes>
            0 -1 190 1.3783288188278675e-02</internalNodes>
          <leafValues>
            -6.1430895328521729e-01 1.0685367137193680e-01</leafValues></_>
        <_>
          <internalNodes>
            0 -1 53 1.9989553838968277e-02</internalNodes>
          <leafValues>
            3.7596353888511658e-01 -2.2620107233524323e-01</leafValues></_>
        <_>
          <internalNodes>
            0 -1 24 4.9931500107049942e-03</internalNodes>
          <leafValues>
            5.4363554716110229e-01 -9.9525347352027893e-02</leafValues></_>
        <_>
          <internalNodes>
            0 -1 208 1.8032683059573174e-02</internalNodes>
          <leafValues>
            -3.6992686986923218e-01 1.6164194047451019e-01</leafValues></_>
        <_>
          <internalNodes>
            0 -1 13 1.1441001668572426e-02</internalNodes>
          <leafValues>
            6.3995492458343506e-01 -9.1893322765827179e-02</leafValues></_>
        <_>
          <internalNodes>
            0 -1 107 1.6557920724153519e-02</internalNodes>
          <leafValues>
            2.5449299812316895e-01 -2.2778607904911041e-01</leafValues></_>
        <_>
          <internalNodes>
            0 -1 83 1.2858500704169273e-02</internalNodes>
          <leafValues>
            2.7948999404907227e-01 -1.9871760904788971e-01</leafValues></_>
        <_>
          <internalNodes>
            0 -1 19 3.5289391875267029e-02</internalNodes>
          <leafValues>
            1.8581941723823547e-01 -2.9409033060073853e-01</leafValues></_>
        <_>
          <internalNodes>
            0 -1 197 1.3416278176009655e-02</internalNodes>
          <leafValues>
            -4.6834895014762878e-01 1.2957635521888733e-01</leafValues></_>
        <_>
          <internalNodes>
            0 -1 81 4.3296750634908676e-02</internalNodes>
          <leafValues>
            1.1478784680366516e-01 -4.7161930799484253e-01</leafValues></_>
        <_>
          <internalNodes>
            0 -1 45 8.6473543196916580e-03</internalNodes>
          <leafValues>
            4.0877017378807068e-01 -1.3612335920333862e-01</leafValues></_>
        <_>
          <internalNodes>
            0 -1 64 3.7699781358242035e-02</internalNodes>
          <leafValues>
            8.9081473648548126e-02 -5.3908669948577881e-01</leafValues></_>
        <_>
          <internalNodes>
            0 -1 46 6.2970228493213654e-02</internalNodes>
          <leafValues>
            -7.4186198413372040e-02 7.1148639917373657e-01</leafValues></_>
        <_>
          <internalNodes>
            0 -1 205 7.5332455337047577e-02</internalNodes>
          <leafValues>
            6.8329453468322754e-02 -9.2553669214248657e-01</leafValues></_>
        <_>
          <internalNodes>
            0 -1 103 6.6536471247673035e-02</internalNodes>
          <leafValues>
            -7.8034318983554840e-02 7.2721672058105469e-01</leafValues></_>
        <_>
          <internalNodes>
            0 -1 109 5.2528893575072289e-03</internalNodes>
          <leafValues>
            5.6014519929885864e-01 -7.6487205922603607e-02</leafValues></_>
        <_>
          <internalNodes>
            0 -1 216 4.7714792191982269e-02</internalNodes>
          <leafValues>
            -7.9045936465263367e-02 6.0675352811813354e-01</leafValues></_>
        <_>
          <internalNodes>
            0 -1 140 4.7715924680233002e-02</internalNodes>
          <leafValues>
            -7.5737439095973969e-02 5.7899540662765503e-01</leafValues></_>
        <_>
          <internalNodes>
            0 -1 209 1.5642542392015457e-02</internalNodes>
          <leafValues>
            -4.2525959014892578e-01 1.1428873986005783e-01</leafValues></_>
        <_>
          <internalNodes>
            0 -1 2 2.9118098318576813e-03</internalNodes>
          <leafValues>
            8.2290899753570557e-01 -6.6770628094673157e-02</leafValues></_>
        <_>
          <internalNodes>
            0 -1 185 3.8141217082738876e-02</internalNodes>
          <leafValues>
            -8.6235754191875458e-02 5.4558902978897095e-01</leafValues></_>
        <_>
          <internalNodes>
            0 -1 136 4.7182053327560425e-02</internalNodes>
          <leafValues>
            -1.1500927805900574e-01 4.1233053803443909e-01</leafValues></_>
        <_>
          <internalNodes>
            0 -1 232 4.6226643025875092e-02</internalNodes>
          <leafValues>
            8.0761805176734924e-02 -7.0805794000625610e-01</leafValues></_>
        <_>
          <internalNodes>
            0 -1 65 3.4621953964233398e-02</internalNodes>
          <leafValues>
            9.4901897013187408e-02 -4.9687224626541138e-01</leafValues></_>
        <_>
          <internalNodes>
            0 -1 5 1.9596118479967117e-02</internalNodes>
          <leafValues>
            -3.5644629597663879e-01 1.5647010505199432e-01</leafValues></_>
        <_>
          <internalNodes>
            0 -1 69 2.8453826904296875e-02</internalNodes>
          <leafValues>
            -1.8530100584030151e-01 3.1418767571449280e-01</leafValues></_>
        <_>
          <internalNodes>
            0 -1 145 2.7454900555312634e-03</internalNodes>
          <leafValues>
            6.8496155738830566e-01 -6.9683343172073364e-02</leafValues></_>
        <_>
          <internalNodes>
            0 -1 117 2.5337029248476028e-02</internalNodes>
          <leafValues>
            1.6316120326519012e-01 -2.9180079698562622e-01</leafValues></_>
        <_>
          <internalNodes>
            0 -1 70 1.9155738875269890e-02</internalNodes>
          <leafValues>
            -3.1841406226158142e-01 1.5505631268024445e-01</leafValues></_>
        <_>
          <internalNodes>
            0 -1 121 2.1839771419763565e-02</internalNodes>
          <leafValues>
            3.3531761169433594e-01 -1.8648749589920044e-01</leafValues></_>
        <_>
          <internalNodes>
            0 -1 159 3.6901332437992096e-02</internalNodes>
          <leafValues>
            -1.9251883029937744e-01 2.8748330473899841e-01</leafValues></_></weakClassifiers></_>
    <!-- stage 2 -->
    <_>
      <maxWeakCount>40</maxWeakCount>
      <stageThreshold>-6.6788482666015625e-01</stageThreshold>
      <weakClassifiers>
        <_>
          <internalNodes>
            0 -1 235 1.4815634116530418e-02</internalNodes>
          <leafValues>
            -7.9838711023330688e-01 -3.8363169878721237e-02</leafValues></_>
        <_>
          <internalNodes>
            0 -1 224 1.6931220889091492e-02</internalNodes>
          <leafValues>
            -5.3405249118804932e-01 2.9903191328048706e-01</leafValues></_>
        <_>
          <internalNodes>
            0 -1 229 1.7591821029782295e-02</internalNodes>
          <leafValues>
            -4.9562940001487732e-01 2.6130014657974243e-01</leafValues></_>
        <_>
          <internalNodes>
            0 -1 230 1.6048710793256760e-02</internalNodes>
          <leafValues>
            -5.9115976095199585e-01 2.2264117002487183e-01</leafValues></_>
        <_>
          <internalNodes>
            0 -1 239 2.0613688975572586e-02</internalNodes>
          <leafValues>
            -2.6049184799194336e-01 3.2998111844062805e-01</leafValues></_>
        <_>
          <internalNodes>
            0 -1 193 1.2715462595224380e-02</internalNodes>
          <leafValues>
            -7.0408010482788086e-01 1.3138692080974579e-01</leafValues></_>
        <_>
          <internalNodes>
            0 -1 223 1.8676925450563431e-02</internalNodes>
          <leafValues>
            -6.0919803380966187e-01 1.1625507473945618e-01</leafValues></_>
        <_>
          <internalNodes>
            0 -1 30 3.2711811363697052e-02</internalNodes>
          <leafValues>
            -2.6771852374076843e-01 3.4142231941223145e-01</leafValues></_>
        <_>
          <internalNodes>
            0 -1 147 1.8101772293448448e-02</internalNodes>
          <leafValues>
            -3.2945719361305237e-01 2.3466728627681732e-01</leafValues></_>
        <_>
          <internalNodes>
            0 -1 62 1.0829175822436810e-02</internalNodes>
          <leafValues>
            2.7370569109916687e-01 -2.6604902744293213e-01</leafValues></_>
        <_>
          <internalNodes>
            0 -1 177 9.2189814895391464e-03</internalNodes>
          <leafValues>
            -5.8891880512237549e-01 1.0527022927999496e-01</leafValues></_>
        <_>
          <internalNodes>
            0 -1 202 2.3772519081830978e-02</internalNodes>
          <leafValues>
            1.6329681873321533e-01 -3.4028416872024536e-01</leafValues></_>
        <_>
          <internalNodes>
            0 -1 214 5.0755096599459648e-03</internalNodes>
          <leafValues>
            -7.4725133180618286e-01 6.9528222084045410e-02</leafValues></_>
        <_>
          <internalNodes>
            0 -1 85 2.8412526473402977e-02</internalNodes>
          <leafValues>
            1.1904925107955933e-01 -4.6222007274627686e-01</leafValues></_>
        <_>
          <internalNodes>
            0 -1 71 6.9252457469701767e-03</internalNodes>
          <leafValues>
            -6.4797401428222656e-01 7.9214014112949371e-02</leafValues></_>
        <_>
          <internalNodes>
            0 -1 19 1.4667650684714317e-02</internalNodes>
          <leafValues>
            4.4284597039222717e-01 -1.3872221112251282e-01</leafValues></_>
        <_>
          <internalNodes>
            0 -1 23 1.6957487910985947e-02</internalNodes>
          <leafValues>
            1.9597235321998596e-01 -2.8903943300247192e-01</leafValues></_>
        <_>
          <internalNodes>
            0 -1 228 1.4565883204340935e-02</internalNodes>
          <leafValues>
            -3.8409024477005005e-01 1.3625741004943848e-01</leafValues></_>
        <_>
          <internalNodes>
            0 -1 105 3.2981071621179581e-02</internalNodes>
          <leafValues>
            -2.0100003480911255e-01 2.5809097290039063e-01</leafValues></_>
        <_>
          <internalNodes>
            0 -1 221 3.6786705255508423e-02</internalNodes>
          <leafValues>
            -1.0600844025611877e-01 4.9530404806137085e-01</leafValues></_>
        <_>
          <internalNodes>
            0 -1 158 2.3113198578357697e-02</internalNodes>
          <leafValues>
            -2.2016611695289612e-01 2.9736045002937317e-01</leafValues></_>
        <_>
          <internalNodes>
            0 -1 212 3.3686734735965729e-02</internalNodes>
          <leafValues>
            -1.4538192749023438e-01 3.7005624175071716e-01</leafValues></_>
        <_>
          <internalNodes>
            0 -1 172 5.1094509661197662e-02</internalNodes>
          <leafValues>
            8.2990124821662903e-02 -8.5086059570312500e-01</leafValues></_>
        <_>
          <internalNodes>
            0 -1 219 3.4254021942615509e-02</internalNodes>
          <leafValues>
            -1.1207585036754608e-01 5.6874638795852661e-01</leafValues></_>
        <_>
          <internalNodes>
            0 -1 204 7.9934503883123398e-03</internalNodes>
          <leafValues>
            -5.7478564977645874e-01 1.0145991295576096e-01</leafValues></_>
        <_>
          <internalNodes>
            0 -1 145 1.8145769834518433e-02</internalNodes>
          <leafValues>
            1.6043448448181152e-01 -3.3626261353492737e-01</leafValues></_>
        <_>
          <internalNodes>
            0 -1 163 2.6142999529838562e-02</internalNodes>
          <leafValues>
            -1.9257445633411407e-01 3.0360519886016846e-01</leafValues></_>
        <_>
          <internalNodes>
            0 -1 7 7.7303722500801086e-03</internalNodes>
          <leafValues>
            -7.2361636161804199e-01 6.6886417567729950e-02</leafValues></_>
        <_>
          <internalNodes>
            0 -1 35 6.5122256055474281e-03</internalNodes>
          <leafValues>
            -7.4267429113388062e-01 4.5681964606046677e-02</leafValues></_>
        <_>
          <internalNodes>
            0 -1 12 4.2100655846297741e-03</internalNodes>
          <leafValues>
            5.0936836004257202e-01 -1.1379951238632202e-01</leafValues></_>
        <_>
          <internalNodes>
            0 -1 126 3.9422210305929184e-02</internalNodes>
          <leafValues>
            1.4273828268051147e-01 -3.6154121160507202e-01</leafValues></_>
        <_>
          <internalNodes>
            0 -1 87 3.2943625003099442e-02</internalNodes>
          <leafValues>
            -1.7947076261043549e-01 2.6554253697395325e-01</leafValues></_>
        <_>
          <internalNodes>
            0 -1 211 1.1134315282106400e-02</internalNodes>
          <leafValues>
            -6.0726976394653320e-01 7.3626488447189331e-02</leafValues></_>
        <_>
          <internalNodes>
            0 -1 39 4.7361619770526886e-02</internalNodes>
          <leafValues>
            -1.2065355479717255e-01 4.8957982659339905e-01</leafValues></_>
        <_>
          <internalNodes>
            0 -1 203 4.4059656560420990e-02</internalNodes>
          <leafValues>
            -8.1437185406684875e-02 6.0408782958984375e-01</leafValues></_>
        <_>
          <internalNodes>
            0 -1 112 3.6303978413343430e-02</internalNodes>
          <leafValues>
            -1.4053867757320404e-01 3.6274418234825134e-01</leafValues></_>
        <_>
          <internalNodes>
            0 -1 162 8.1253601238131523e-03</internalNodes>
          <leafValues>
            -7.2996133565902710e-01 6.8471178412437439e-02</leafValues></_>
        <_>
          <internalNodes>
            0 -1 55 4.9636520445346832e-02</internalNodes>
          <leafValues>
            7.3317572474479675e-02 -5.7647645473480225e-01</leafValues></_>
        <_>
          <internalNodes>
            0 -1 21 2.0246930420398712e-02</internalNodes>
          <leafValues>
            2.2039143741130829e-01 -2.3085471987724304e-01</leafValues></_>
        <_>
          <internalNodes>
            0 -1 66 7.3424175381660461e-02</internalNodes>
          <leafValues>
            5.6562926620244980e-02 -8.3077335357666016e-01</leafValues></_></weakClassifiers></_>
    <!-- stage 3 -->
    <_>
      <maxWeakCount>74</maxWeakCount>
      <stageThreshold>-7.0150351524353027e-01</stageThreshold>
      <weakClassifiers>
        <_>
          <internalNodes>
            0 -1 218 1.0521052405238152e-02</internalNodes>
          <leafValues>
            1.6666667163372040e-01 -5.2043008804321289e-01</leafValues></_>
        <_>
          <internalNodes>
            0 -1 2 1.7845150083303452e-02</internalNodes>
          <leafValues>
            2.1877205371856689e-01 -3.3210349082946777e-01</leafValues></_>
        <_>
          <internalNodes>
            0 -1 104 1.1874023824930191e-02</internalNodes>
          <leafValues>
            2.9005518555641174e-01 -2.3679673671722412e-01</leafValues></_>
        <_>
          <internalNodes>
            0 -1 11 4.8583842813968658e-02</internalNodes>
          <leafValues>
            -1.2513451278209686e-01 4.6341338753700256e-01</leafValues></_>
        <_>
          <internalNodes>
            0 -1 134 1.4978278428316116e-02</internalNodes>
          <leafValues>
            2.8346326947212219e-01 -1.7492295801639557e-01</leafValues></_>
        <_>
          <internalNodes>
            0 -1 149 3.0418688431382179e-02</internalNodes>
          <leafValues>
            -2.9872640967369080e-01 1.5186838805675507e-01</leafValues></_>
        <_>
          <internalNodes>
            0 -1 22 1.9852537661790848e-02</internalNodes>
          <leafValues>
            -2.7455070614814758e-01 1.7503048479557037e-01</leafValues></_>
        <_>
          <internalNodes>
            0 -1 84 5.4182127118110657e-02</internalNodes>
          <leafValues>
            -6.1509840190410614e-02 5.2659982442855835e-01</leafValues></_>
        <_>
          <internalNodes>
            0 -1 24 8.6383325979113579e-03</internalNodes>
          <leafValues>
            2.8504669666290283e-01 -1.4840197563171387e-01</leafValues></_>
        <_>
          <internalNodes>
            0 -1 109 1.0910301469266415e-02</internalNodes>
          <leafValues>
            2.6392844319343567e-01 -1.4630469679832458e-01</leafValues></_>
        <_>
          <internalNodes>
            0 -1 225 6.2445636838674545e-02</internalNodes>
          <leafValues>
            6.8130828440189362e-02 -7.3635071516036987e-01</leafValues></_>
        <_>
          <internalNodes>
            0 -1 233 1.2831270694732666e-02</internalNodes>
          <leafValues>
            -7.3908394575119019e-01 2.7393635362386703e-02</leafValues></_>
        <_>
          <internalNodes>
            0 -1 51 5.0235677510499954e-02</internalNodes>
          <leafValues>
            6.9747440516948700e-02 -4.9562308192253113e-01</leafValues></_>
        <_>
          <internalNodes>
            0 -1 164 3.0659470707178116e-02</internalNodes>
          <leafValues>
            9.1013818979263306e-02 -3.6713933944702148e-01</leafValues></_>
        <_>
          <internalNodes>
            0 -1 101 1.0920060798525810e-02</internalNodes>
          <leafValues>
            2.3280140757560730e-01 -1.5039044618606567e-01</leafValues></_>
        <_>
          <internalNodes>
            0 -1 225 1.8326347693800926e-02</internalNodes>
          <leafValues>
            3.8306921720504761e-01 -1.0361514240503311e-01</leafValues></_>
        <_>
          <internalNodes>
            0 -1 155 8.3591993898153305e-03</internalNodes>
          <leafValues>
            -8.2369607686996460e-01 4.8730120062828064e-02</leafValues></_>
        <_>
          <internalNodes>
            0 -1 176 2.4951141327619553e-02</internalNodes>
          <leafValues>
            1.4715903997421265e-01 -2.7891016006469727e-01</leafValues></_>
        <_>
          <internalNodes>
            0 -1 26 1.3470932841300964e-02</internalNodes>
          <leafValues>
            2.0650026202201843e-01 -1.9451926648616791e-01</leafValues></_>
        <_>
          <internalNodes>
            0 -1 188 3.9121069014072418e-02</internalNodes>
          <leafValues>
            -8.8963158428668976e-02 3.9319920539855957e-01</leafValues></_>
        <_>
          <internalNodes>
            0 -1 207 6.3622817397117615e-02</internalNodes>
          <leafValues>
            3.5142280161380768e-02 -9.2505550384521484e-01</leafValues></_>
        <_>
          <internalNodes>
            0 -1 3 2.5140389800071716e-02</internalNodes>
          <leafValues>
            9.6953652799129486e-02 -3.0540689826011658e-01</leafValues></_>
        <_>
          <internalNodes>
            0 -1 200 1.2003500014543533e-02</internalNodes>
          <leafValues>
            -4.0923953056335449e-01 9.5773696899414063e-02</leafValues></_>
        <_>
          <internalNodes>
            0 -1 27 2.2461868822574615e-02</internalNodes>
          <leafValues>
            1.4331766963005066e-01 -2.0378410816192627e-01</leafValues></_>
        <_>
          <internalNodes>
            0 -1 47 6.2937118113040924e-02</internalNodes>
          <leafValues>
            -4.8199284821748734e-02 6.9403964281082153e-01</leafValues></_>
        <_>
          <internalNodes>
            0 -1 50 4.3072175234556198e-02</internalNodes>
          <leafValues>
            -8.8576599955558777e-02 3.2226282358169556e-01</leafValues></_>
        <_>
          <internalNodes>
            0 -1 31 2.4880103766918182e-02</internalNodes>
          <leafValues>
            -1.7544268071651459e-01 1.9082841277122498e-01</leafValues></_>
        <_>
          <internalNodes>
            0 -1 5 2.3902971297502518e-02</internalNodes>
          <leafValues>
            -2.0688077807426453e-01 1.5122659504413605e-01</leafValues></_>
        <_>
          <internalNodes>
            0 -1 119 5.1107563078403473e-02</internalNodes>
          <leafValues>
            -8.4362730383872986e-02 3.7195128202438354e-01</leafValues></_>
        <_>
          <internalNodes>
            0 -1 144 1.7063234001398087e-02</internalNodes>
          <leafValues>
            1.5068031847476959e-01 -2.1730864048004150e-01</leafValues></_>
        <_>
          <internalNodes>
            0 -1 38 5.2220309153199196e-03</internalNodes>
          <leafValues>
            -5.5586647987365723e-01 5.4032165557146072e-02</leafValues></_>
        <_>
          <internalNodes>
            0 -1 10 2.4197760969400406e-02</internalNodes>
          <leafValues>
            1.0748796164989471e-01 -2.6715862751007080e-01</leafValues></_>
        <_>
          <internalNodes>
            0 -1 213 2.1104048937559128e-02</internalNodes>
          <leafValues>
            1.6878145933151245e-01 -1.7352670431137085e-01</leafValues></_>
        <_>
          <internalNodes>
            0 -1 100 8.4102675318717957e-03</internalNodes>
          <leafValues>
            2.9899746179580688e-01 -1.1973391473293304e-01</leafValues></_>
        <_>
          <internalNodes>
            0 -1 174 1.2589941918849945e-01</internalNodes>
          <leafValues>
            3.1080920249223709e-02 -1.</leafValues></_>
        <_>
          <internalNodes>
            0 -1 111 1.5369629487395287e-02</internalNodes>
          <leafValues>
            1.9368708133697510e-01 -1.4660806953907013e-01</leafValues></_>
        <_>
          <internalNodes>
            0 -1 106 4.2971529066562653e-02</internalNodes>
          <leafValues>
            5.6526642292737961e-02 -5.8573663234710693e-01</leafValues></_>
        <_>
          <internalNodes>
            0 -1 44 2.9151625931262970e-02</internalNodes>
          <leafValues>
            -1.3981652259826660e-01 2.1673594415187836e-01</leafValues></_>
        <_>
          <internalNodes>
            0 -1 153 3.5414546728134155e-02</internalNodes>
          <leafValues>
            -9.5543786883354187e-02 3.0355861783027649e-01</leafValues></_>
        <_>
          <internalNodes>
            0 -1 184 2.1030593663454056e-02</internalNodes>
          <leafValues>
            2.1170270442962646e-01 -1.3917586207389832e-01</leafValues></_>
        <_>
          <internalNodes>
            0 -1 67 1.5277799218893051e-02</internalNodes>
          <leafValues>
            -3.6011791229248047e-01 8.6600758135318756e-02</leafValues></_>
        <_>
          <internalNodes>
            0 -1 115 1.6994575038552284e-02</internalNodes>
          <leafValues>
            2.7343636751174927e-01 -1.1231654137372971e-01</leafValues></_>
        <_>
          <internalNodes>
            0 -1 217 7.2855934500694275e-02</internalNodes>
          <leafValues>
            4.4495243579149246e-02 -7.3722964525222778e-01</leafValues></_>
        <_>
          <internalNodes>
            0 -1 57 1.8590232357382774e-02</internalNodes>
          <leafValues>
            2.5290051102638245e-01 -1.1427614092826843e-01</leafValues></_>
        <_>
          <internalNodes>
            0 -1 76 2.8483718633651733e-02</internalNodes>
          <leafValues>
            1.1905617266893387e-01 -2.9809588193893433e-01</leafValues></_>
        <_>
          <internalNodes>
            0 -1 234 3.0480351299047470e-02</internalNodes>
          <leafValues>
            1.3331872224807739e-01 -2.2321763634681702e-01</leafValues></_>
        <_>
          <internalNodes>
            0 -1 32 5.0065191462635994e-03</internalNodes>
          <leafValues>
            -7.2982579469680786e-01 3.8426876068115234e-02</leafValues></_>
        <_>
          <internalNodes>
            0 -1 57 7.6099522411823273e-02</internalNodes>
          <leafValues>
            -6.9943770766258240e-02 5.6765896081924438e-01</leafValues></_>
        <_>
          <internalNodes>
            0 -1 146 4.8302570357918739e-03</internalNodes>
          <leafValues>
            3.9434623718261719e-01 -7.2083450853824615e-02</leafValues></_>
        <_>
          <internalNodes>
            0 -1 124 2.7798663824796677e-02</internalNodes>
          <leafValues>
            1.1374930292367935e-01 -2.7260053157806396e-01</leafValues></_>
        <_>
          <internalNodes>
            0 -1 125 6.0870256274938583e-03</internalNodes>
          <leafValues>
            -4.9866905808448792e-01 5.5627889931201935e-02</leafValues></_>
        <_>
          <internalNodes>
            0 -1 56 7.0631608366966248e-02</internalNodes>
          <leafValues>
            -4.8707075417041779e-02 7.3857676982879639e-01</leafValues></_>
        <_>
          <internalNodes>
            0 -1 240 8.0218017101287842e-03</internalNodes>
          <leafValues>
            -8.4206503629684448e-01 4.4488266110420227e-02</leafValues></_>
        <_>
          <internalNodes>
            0 -1 18 3.5196956247091293e-02</internalNodes>
          <leafValues>
            -1.2348023056983948e-01 2.2909002006053925e-01</leafValues></_>
        <_>
          <internalNodes>
            0 -1 118 9.1035617515444756e-03</internalNodes>
          <leafValues>
            3.7935104966163635e-01 -6.7138954997062683e-02</leafValues></_>
        <_>
          <internalNodes>
            0 -1 114 6.8951576948165894e-02</internalNodes>
          <leafValues>
            3.1375955790281296e-02 -1.</leafValues></_>
        <_>
          <internalNodes>
            0 -1 120 4.1355136781930923e-03</internalNodes>
          <leafValues>
            6.1626696586608887e-01 -5.8390017598867416e-02</leafValues></_>
        <_>
          <internalNodes>
            0 -1 98 6.1515406705439091e-03</internalNodes>
          <leafValues>
            3.4438800811767578e-01 -7.2419904172420502e-02</leafValues></_>
        <_>
          <internalNodes>
            0 -1 95 3.4998729825019836e-02</internalNodes>
          <leafValues>
            1.2917016446590424e-01 -2.6011079549789429e-01</leafValues></_>
        <_>
          <internalNodes>
            0 -1 206 8.9074168354272842e-03</internalNodes>
          <leafValues>
            -8.0749970674514771e-01 3.6306440830230713e-02</leafValues></_>
        <_>
          <internalNodes>
            0 -1 199 1.7748689278960228e-02</internalNodes>
          <leafValues>
            1.5821394324302673e-01 -1.8002612888813019e-01</leafValues></_>
        <_>
          <internalNodes>
            0 -1 79 2.0525388419628143e-02</internalNodes>
          <leafValues>
            -1.6626638174057007e-01 1.7048677802085876e-01</leafValues></_>
        <_>
          <internalNodes>
            0 -1 210 1.6222713515162468e-02</internalNodes>
          <leafValues>
            -3.8882282376289368e-01 8.2164525985717773e-02</leafValues></_>
        <_>
          <internalNodes>
            0 -1 78 6.8455534055829048e-03</internalNodes>
          <leafValues>
            5.7786178588867188e-01 -6.7417256534099579e-02</leafValues></_>
        <_>
          <internalNodes>
            0 -1 160 3.6456525325775146e-02</internalNodes>
          <leafValues>
            7.7182084321975708e-02 -4.2897808551788330e-01</leafValues></_>
        <_>
          <internalNodes>
            0 -1 42 1.0611809790134430e-02</internalNodes>
          <leafValues>
            -4.5899650454521179e-01 5.8025296777486801e-02</leafValues></_>
        <_>
          <internalNodes>
            0 -1 90 9.7474176436662674e-03</internalNodes>
          <leafValues>
            -4.1690930724143982e-01 6.4918257296085358e-02</leafValues></_>
        <_>
          <internalNodes>
            0 -1 142 2.5710191577672958e-02</internalNodes>
          <leafValues>
            1.6624738276004791e-01 -1.7392799258232117e-01</leafValues></_>
        <_>
          <internalNodes>
            0 -1 43 8.4938630461692810e-03</internalNodes>
          <leafValues>
            2.6962193846702576e-01 -1.2703685462474823e-01</leafValues></_>
        <_>
          <internalNodes>
            0 -1 151 3.2271515578031540e-02</internalNodes>
          <leafValues>
            -1.3806568086147308e-01 2.1447174251079559e-01</leafValues></_>
        <_>
          <internalNodes>
            0 -1 174 3.0438609421253204e-02</internalNodes>
          <leafValues>
            -1.9277226924896240e-01 1.7597043514251709e-01</leafValues></_>
        <_>
          <internalNodes>
            0 -1 168 2.8082463890314102e-02</internalNodes>
          <leafValues>
            -1.2871541082859039e-01 2.6906228065490723e-01</leafValues></_>
        <_>
          <internalNodes>
            0 -1 92 5.5287862196564674e-03</internalNodes>
          <leafValues>
            -7.7173894643783569e-01 3.8850851356983185e-02</leafValues></_>
        <_>
          <internalNodes>
            0 -1 86 6.1709716916084290e-02</internalNodes>
          <leafValues>
            2.0524999126791954e-02 -9.5908564329147339e-01</leafValues></_></weakClassifiers></_>
    <!-- stage 4 -->
    <_>
      <maxWeakCount>90</maxWeakCount>
      <stageThreshold>-5.8172142505645752e-01</stageThreshold>
      <weakClassifiers>
        <_>
          <internalNodes>
            0 -1 127 2.8955625370144844e-02</internalNodes>
          <leafValues>
            -5.1499348878860474e-01 -6.0665361583232880e-02</leafValues></_>
        <_>
          <internalNodes>
            0 -1 9 7.2105959057807922e-02</internalNodes>
          <leafValues>
            -1.1880078166723251e-01 5.1027047634124756e-01</leafValues></_>
        <_>
          <internalNodes>
            0 -1 237 2.1211670711636543e-02</internalNodes>
          <leafValues>
            -2.3028130829334259e-01 1.9812446832656860e-01</leafValues></_>
        <_>
          <internalNodes>
            0 -1 108 3.3605122007429600e-03</internalNodes>
          <leafValues>
            4.6782830357551575e-01 -7.7447101473808289e-02</leafValues></_>
        <_>
          <internalNodes>
            0 -1 226 1.0781768709421158e-02</internalNodes>
          <leafValues>
            -4.8864036798477173e-01 7.7677041292190552e-02</leafValues></_>
        <_>
          <internalNodes>
            0 -1 145 1.3101342134177685e-02</internalNodes>
          <leafValues>
            2.0938193798065186e-01 -1.9551862776279449e-01</leafValues></_>
        <_>
          <internalNodes>
            0 -1 4 1.2938656844198704e-02</internalNodes>
          <leafValues>
            1.9071908295154572e-01 -1.7940020561218262e-01</leafValues></_>
        <_>
          <internalNodes>
            0 -1 24 1.7581179738044739e-02</internalNodes>
          <leafValues>
            1.5714474022388458e-01 -2.1522721648216248e-01</leafValues></_>
        <_>
          <internalNodes>
            0 -1 183 2.5748878717422485e-02</internalNodes>
          <leafValues>
            -1.5975044667720795e-01 2.1359348297119141e-01</leafValues></_>
        <_>
          <internalNodes>
            0 -1 187 1.5792626887559891e-02</internalNodes>
          <leafValues>
            -2.2678461670875549e-01 1.5733042359352112e-01</leafValues></_>
        <_>
          <internalNodes>
            0 -1 173 3.4429155290126801e-02</internalNodes>
          <leafValues>
            -1.7909777164459229e-01 1.8453973531723022e-01</leafValues></_>
        <_>
          <internalNodes>
            0 -1 116 3.2027505338191986e-02</internalNodes>
          <leafValues>
            1.1449727416038513e-01 -3.0432340502738953e-01</leafValues></_>
        <_>
          <internalNodes>
            0 -1 222 1.7646268010139465e-02</internalNodes>
          <leafValues>
            -3.5914590954780579e-01 7.0711888372898102e-02</leafValues></_>
        <_>
          <internalNodes>
            0 -1 152 2.3887855932116508e-03</internalNodes>
          <leafValues>
            -9.5359593629837036e-01 2.1389830857515335e-02</leafValues></_>
        <_>
          <internalNodes>
            0 -1 107 4.4485028833150864e-02</internalNodes>
          <leafValues>
            3.1876120716333389e-02 -6.5237319469451904e-01</leafValues></_>
        <_>
          <internalNodes>
            0 -1 17 1.6649179160594940e-02</internalNodes>
          <leafValues>
            2.0920795202255249e-01 -1.3060785830020905e-01</leafValues></_>
        <_>
          <internalNodes>
            0 -1 61 1.3121426105499268e-02</internalNodes>
          <leafValues>
            1.4828038215637207e-01 -1.8017345666885376e-01</leafValues></_>
        <_>
          <internalNodes>
            0 -1 179 6.6514804959297180e-02</internalNodes>
          <leafValues>
            3.2732632011175156e-02 -7.7901160717010498e-01</leafValues></_>
        <_>
          <internalNodes>
            0 -1 138 3.9316602051258087e-02</internalNodes>
          <leafValues>
            9.0233564376831055e-02 -2.6785135269165039e-01</leafValues></_>
        <_>
          <internalNodes>
            0 -1 113 5.2464753389358521e-02</internalNodes>
          <leafValues>
            -6.2223322689533234e-02 4.4360926747322083e-01</leafValues></_>
        <_>
          <internalNodes>
            0 -1 14 2.9757689684629440e-02</internalNodes>
          <leafValues>
            8.3931811153888702e-02 -2.8796216845512390e-01</leafValues></_>
        <_>
          <internalNodes>
            0 -1 182 9.4300173223018646e-03</internalNodes>
          <leafValues>
            -9.6330612897872925e-01 2.5221299380064011e-02</leafValues></_>
        <_>
          <internalNodes>
            0 -1 137 1.2149266898632050e-02</internalNodes>
          <leafValues>
            -3.7691134214401245e-01 5.9771075844764709e-02</leafValues></_>
        <_>
          <internalNodes>
            0 -1 157 3.1756043434143066e-02</internalNodes>
          <leafValues>
            7.6770342886447906e-02 -3.3427855372428894e-01</leafValues></_>
        <_>
          <internalNodes>
            0 -1 74 3.8814283907413483e-02</internalNodes>
          <leafValues>
            -9.6022702753543854e-02 2.9737827181816101e-01</leafValues></_>
        <_>
          <internalNodes>
            0 -1 139 6.3766747713088989e-02</internalNodes>
          <leafValues>
            -4.3064411729574203e-02 6.1597073078155518e-01</leafValues></_>
        <_>
          <internalNodes>
            0 -1 94 3.2946667633950710e-03</internalNodes>
          <leafValues>
            -6.9912236928939819e-01 4.1304148733615875e-02</leafValues></_>
        <_>
          <internalNodes>
            0 -1 52 8.6779017001390457e-03</internalNodes>
          <leafValues>
            -3.3927771449089050e-01 6.4906410872936249e-02</leafValues></_>
        <_>
          <internalNodes>
            0 -1 110 3.1918175518512726e-02</internalNodes>
          <leafValues>
            7.1621783077716827e-02 -3.7254118919372559e-01</leafValues></_>
        <_>
          <internalNodes>
            0 -1 8 2.6900174096226692e-02</internalNodes>
          <leafValues>
            -1.7040973901748657e-01 1.3878817856311798e-01</leafValues></_>
        <_>
          <internalNodes>
            0 -1 49 2.7916844934225082e-02</internalNodes>
          <leafValues>
            -1.1916470527648926e-01 2.1475934982299805e-01</leafValues></_>
        <_>
          <internalNodes>
            0 -1 65 9.4108292832970619e-03</internalNodes>
          <leafValues>
            -3.1709715723991394e-01 7.0711307227611542e-02</leafValues></_>
        <_>
          <internalNodes>
            0 -1 1 1.0344395413994789e-02</internalNodes>
          <leafValues>
            2.5701421499252319e-01 -1.0977086424827576e-01</leafValues></_>
        <_>
          <internalNodes>
            0 -1 133 8.3061173558235168e-02</internalNodes>
          <leafValues>
            2.7630966156721115e-02 -8.8518834114074707e-01</leafValues></_>
        <_>
          <internalNodes>
            0 -1 189 1.4871460385620594e-02</internalNodes>
          <leafValues>
            -3.5103380680084229e-01 6.8894945085048676e-02</leafValues></_>
        <_>
          <internalNodes>
            0 -1 165 2.3707330226898193e-02</internalNodes>
          <leafValues>
            1.1257223039865494e-01 -2.1295863389968872e-01</leafValues></_>
        <_>
          <internalNodes>
            0 -1 236 1.9153486937284470e-02</internalNodes>
          <leafValues>
            -2.2552575170993805e-01 9.6339322626590729e-02</leafValues></_>
        <_>
          <internalNodes>
            0 -1 130 2.0889956504106522e-02</internalNodes>
          <leafValues>
            1.9335953891277313e-01 -1.7849048972129822e-01</leafValues></_>
        <_>
          <internalNodes>
            0 -1 28 8.1530570983886719e-02</internalNodes>
          <leafValues>
            -2.3744635283946991e-02 9.2145282030105591e-01</leafValues></_>
        <_>
          <internalNodes>
            0 -1 144 3.7173725664615631e-02</internalNodes>
          <leafValues>
            6.0828715562820435e-02 -3.9526176452636719e-01</leafValues></_>
        <_>
          <internalNodes>
            0 -1 195 4.5390218496322632e-02</internalNodes>
          <leafValues>
            -5.8510068804025650e-02 4.2508056759834290e-01</leafValues></_>
        <_>
          <internalNodes>
            0 -1 64 7.6148421503603458e-03</internalNodes>
          <leafValues>
            3.0326798558235168e-01 -8.1297226250171661e-02</leafValues></_>
        <_>
          <internalNodes>
            0 -1 41 2.5090915150940418e-03</internalNodes>
          <leafValues>
            -9.3764632940292358e-01 2.6392661035060883e-02</leafValues></_>
        <_>
          <internalNodes>
            0 -1 131 2.1164601668715477e-02</internalNodes>
          <leafValues>
            1.6617368161678314e-01 -1.5451963245868683e-01</leafValues></_>
        <_>
          <internalNodes>
            0 -1 122 6.3896387815475464e-02</internalNodes>
          <leafValues>
            -4.2213946580886841e-02 5.7421851158142090e-01</leafValues></_>
        <_>
          <internalNodes>
            0 -1 89 4.6272873878479004e-02</internalNodes>
          <leafValues>
            -4.8388648778200150e-02 4.3263888359069824e-01</leafValues></_>
        <_>
          <internalNodes>
            0 -1 54 1.5130003914237022e-02</internalNodes>
          <leafValues>
            -2.3921447992324829e-01 1.0326829552650452e-01</leafValues></_>
        <_>
          <internalNodes>
            0 -1 103 6.8467654287815094e-02</internalNodes>
          <leafValues>
            -4.0638584643602371e-02 5.8698976039886475e-01</leafValues></_>
        <_>
          <internalNodes>
            0 -1 60 5.7379730045795441e-02</internalNodes>
          <leafValues>
            -4.0262196213006973e-02 5.3801268339157104e-01</leafValues></_>
        <_>
          <internalNodes>
            0 -1 201 1.5834126621484756e-02</internalNodes>
          <leafValues>
            1.8050429224967957e-01 -1.2078760564327240e-01</leafValues></_>
        <_>
          <internalNodes>
            0 -1 161 6.8196833133697510e-02</internalNodes>
          <leafValues>
            2.3397509008646011e-02 -8.8205611705780029e-01</leafValues></_>
        <_>
          <internalNodes>
            0 -1 227 1.2054230086505413e-02</internalNodes>
          <leafValues>
            -3.2047009468078613e-01 6.9189675152301788e-02</leafValues></_>
        <_>
          <internalNodes>
            0 -1 186 1.8834072398021817e-03</internalNodes>
          <leafValues>
            7.9932439327239990e-01 -3.5111743956804276e-02</leafValues></_>
        <_>
          <internalNodes>
            0 -1 29 1.2721367180347443e-01</internalNodes>
          <leafValues>
            3.4955739974975586e-02 -8.2011473178863525e-01</leafValues></_>
        <_>
          <internalNodes>
            0 -1 73 8.1845328211784363e-02</internalNodes>
          <leafValues>
            -5.3744163364171982e-02 4.9718016386032104e-01</leafValues></_>
        <_>
          <internalNodes>
            0 -1 154 5.7094697840511799e-03</internalNodes>
          <leafValues>
            -7.1963793039321899e-01 3.5742972046136856e-02</leafValues></_>
        <_>
          <internalNodes>
            0 -1 135 3.1682223081588745e-02</internalNodes>
          <leafValues>
            -8.7260693311691284e-02 2.6746392250061035e-01</leafValues></_>
        <_>
          <internalNodes>
            0 -1 215 6.0903534293174744e-02</internalNodes>
          <leafValues>
            -5.8240588754415512e-02 4.2425689101219177e-01</leafValues></_>
        <_>
          <internalNodes>
            0 -1 37 1.6112625598907471e-03</internalNodes>
          <leafValues>
            -9.2561984062194824e-01 2.9708402231335640e-02</leafValues></_>
        <_>
          <internalNodes>
            0 -1 194 4.9227410927414894e-03</internalNodes>
          <leafValues>
            3.7588030099868774e-01 -7.1979738771915436e-02</leafValues></_>
        <_>
          <internalNodes>
            0 -1 20 5.0740428268909454e-02</internalNodes>
          <leafValues>
            5.1903259009122849e-02 -4.4820320606231689e-01</leafValues></_>
        <_>
          <internalNodes>
            0 -1 58 3.1239623203873634e-02</internalNodes>
          <leafValues>
            1.1840201169252396e-01 -1.8088354170322418e-01</leafValues></_>
        <_>
          <internalNodes>
            0 -1 191 1.6040962189435959e-02</internalNodes>
          <leafValues>
            -4.7435316443443298e-01 5.4034356027841568e-02</leafValues></_>
        <_>
          <internalNodes>
            0 -1 141 1.6539931297302246e-02</internalNodes>
          <leafValues>
            -2.3997575044631958e-01 1.0140664875507355e-01</leafValues></_>
        <_>
          <internalNodes>
            0 -1 169 2.8553884476423264e-02</internalNodes>
          <leafValues>
            7.9683654010295868e-02 -2.9833349585533142e-01</leafValues></_>
        <_>
          <internalNodes>
            0 -1 72 4.9660108983516693e-02</internalNodes>
          <leafValues>
            5.3941573947668076e-02 -4.1836997866630554e-01</leafValues></_>
        <_>
          <internalNodes>
            0 -1 156 5.6196644902229309e-02</internalNodes>
          <leafValues>
            -7.7539347112178802e-02 3.1276091933250427e-01</leafValues></_>
        <_>
          <internalNodes>
            0 -1 175 4.6129385009407997e-03</internalNodes>
          <leafValues>
            -7.1252024173736572e-01 3.3917695283889771e-02</leafValues></_>
        <_>
          <internalNodes>
            0 -1 170 2.3201502859592438e-02</internalNodes>
          <leafValues>
            9.9738612771034241e-02 -2.0896133780479431e-01</leafValues></_>
        <_>
          <internalNodes>
            0 -1 150 1.6623364761471748e-02</internalNodes>
          <leafValues>
            -2.7956232428550720e-01 8.9964367449283600e-02</leafValues></_>
        <_>
          <internalNodes>
            0 -1 102 9.7276657819747925e-02</internalNodes>
          <leafValues>
            1.9045958295464516e-02 -1.</leafValues></_>
        <_>
          <internalNodes>
            0 -1 36 6.7673504352569580e-02</internalNodes>
          <leafValues>
            3.2865479588508606e-02 -5.2642333507537842e-01</leafValues></_>
        <_>
          <internalNodes>
            0 -1 48 6.2925785779953003e-02</internalNodes>
          <leafValues>
            -4.3475873768329620e-02 5.5639994144439697e-01</leafValues></_>
        <_>
          <internalNodes>
            0 -1 99 2.0305821672081947e-02</internalNodes>
          <leafValues>
            1.1122633516788483e-01 -2.2549352049827576e-01</leafValues></_>
        <_>
          <internalNodes>
            0 -1 68 8.5072163492441177e-03</internalNodes>
          <leafValues>
            4.8751220107078552e-01 -4.5759126543998718e-02</leafValues></_>
        <_>
          <internalNodes>
            0 -1 88 2.2414058446884155e-02</internalNodes>
          <leafValues>
            1.1058889329433441e-01 -2.0446212589740753e-01</leafValues></_>
        <_>
          <internalNodes>
            0 -1 129 2.1596513688564301e-02</internalNodes>
          <leafValues>
            1.8776930868625641e-01 -1.1795167624950409e-01</leafValues></_>
        <_>
          <internalNodes>
            0 -1 88 1.0350034572184086e-03</internalNodes>
          <leafValues>
            -7.6415497064590454e-01 2.8306487947702408e-02</leafValues></_>
        <_>
          <internalNodes>
            0 -1 91 8.8468343019485474e-02</internalNodes>
          <leafValues>
            -3.2869696617126465e-02 7.6661527156829834e-01</leafValues></_>
        <_>
          <internalNodes>
            0 -1 77 3.2420894131064415e-03</internalNodes>
          <leafValues>
            -8.3022522926330566e-01 3.1521756201982498e-02</leafValues></_>
        <_>
          <internalNodes>
            0 -1 34 6.8620741367340088e-02</internalNodes>
          <leafValues>
            3.0390992760658264e-02 -5.1773649454116821e-01</leafValues></_>
        <_>
          <internalNodes>
            0 -1 83 8.3098234608769417e-03</internalNodes>
          <leafValues>
            2.3133529722690582e-01 -9.7453974187374115e-02</leafValues></_>
        <_>
          <internalNodes>
            0 -1 167 1.1009919457137585e-02</internalNodes>
          <leafValues>
            -3.9615738391876221e-01 6.5388530492782593e-02</leafValues></_>
        <_>
          <internalNodes>
            0 -1 16 4.7520518302917480e-02</internalNodes>
          <leafValues>
            -8.8552229106426239e-02 3.1057155132293701e-01</leafValues></_>
        <_>
          <internalNodes>
            0 -1 131 4.1992209851741791e-02</internalNodes>
          <leafValues>
            7.4971556663513184e-02 -3.0930820107460022e-01</leafValues></_>
        <_>
          <internalNodes>
            0 -1 6 2.8992231935262680e-02</internalNodes>
          <leafValues>
            7.3816567659378052e-02 -2.8112941980361938e-01</leafValues></_>
        <_>
          <internalNodes>
            0 -1 238 5.6673809885978699e-02</internalNodes>
          <leafValues>
            2.8937134891748428e-02 -7.8414171934127808e-01</leafValues></_>
        <_>
          <internalNodes>
            0 -1 143 5.2159540355205536e-03</internalNodes>
          <leafValues>
            3.7298750877380371e-01 -6.8041011691093445e-02</leafValues></_>
        <_>
          <internalNodes>
            0 -1 80 1.7809624550864100e-03</internalNodes>
          <leafValues>
            -7.9617470502853394e-01 2.8349710628390312e-02</leafValues></_>
        <_>
          <internalNodes>
            0 -1 166 9.8926080390810966e-03</internalNodes>
          <leafValues>
            -4.8612678050994873e-01 3.9310261607170105e-02</leafValues></_></weakClassifiers></_></stages>
  <features>
    <_>
      <rect>
        0 0 8 8 1</rect></_>
    <_>
      <rect>
        0 0 8 8 2</rect></_>
    <_>
      <rect>
        0 0 8 8 5</rect></_>
    <_>
      <rect>
        0 0 8 8 6</rect></_>
    <_>
      <rect>
        0 0 8 8 7</rect></_>
    <_>
      <rect>
        0 0 8 8 12</rect></_>
    <_>
      <rect>
        0 0 8 8 24</rect></_>
    <_>
      <rect>
        0 0 8 8 30</rect></_>
    <_>
      <rect>
        0 0 8 8 32</rect></_>
    <_>
      <rect>
        0 0 8 8 33</rect></_>
    <_>
      <rect>
        0 4 8 8 7</rect></_>
    <_>
      <rect>
        0 4 8 8 19</rect></_>
    <_>
      <rect>
        0 4 8 8 24</rect></_>
    <_>
      <rect>
        0 8 8 8 4</rect></_>
    <_>
      <rect>
        0 8 8 8 5</rect></_>
    <_>
      <rect>
        0 8 8 8 6</rect></_>
    <_>
      <rect>
        0 8 8 8 14</rect></_>
    <_>
      <rect>
        0 8 8 8 21</rect></_>
    <_>
      <rect>
        0 12 8 8 1</rect></_>
    <_>
      <rect>
        0 12 8 8 22</rect></_>
    <_>
      <rect>
        0 16 8 8 5</rect></_>
    <_>
      <rect>
        0 16 8 8 8</rect></_>
    <_>
      <rect>
        0 16 8 8 17</rect></_>
    <_>
      <rect>
        0 16 8 8 18</rect></_>
    <_>
      <rect>
        0 16 8 8 19</rect></_>
    <_>
      <rect>
        0 16 8 8 24</rect></_>
    <_>
      <rect>
        0 16 8 8 26</rect></_>
    <_>
      <rect>
        0 16 8 8 32</rect></_>
    <_>
      <rect>
        0 16 8 8 34</rect></_>
    <_>
      <rect>
        4 0 8 8 4</rect></_>
    <_>
      <rect>
        4 0 8 8 33</rect></_>
    <_>
      <rect>
        4 4 8 8 17</rect></_>
    <_>
      <rect>
        4 4 8 8 30</rect></_>
    <_>
      <rect>
        4 4 8 8 33</rect></_>
    <_>
      <rect>
        4 12 8 8 14</rect></_>
    <_>
      <rect>
        4 12 8 8 15</rect></_>
    <_>
      <rect>
        4 12 8 8 17</rect></_>
    <_>
      <rect>
        4 12 8 8 23</rect></_>
    <_>
      <rect>
        4 12 8 8 35</rect></_>
    <_>
      <rect>
        4 16 8 8 1</rect></_>
    <_>
      <rect>
        4 16 8 8 6</rect></_>
    <_>
      <rect>
        4 16 8 8 12</rect></_>
    <_>
      <rect>
        4 16 8 8 16</rect></_>
    <_>
      <rect>
        4 16 8 8 18</rect></_>
    <_>
      <rect>
        4 16 8 8 21</rect></_>
    <_>
      <rect>
        4 16 8 8 24</rect></_>
    <_>
      <rect>
        4 16 8 8 28</rect></_>
    <_>
      <rect>
        4 16 8 8 33</rect></_>
    <_>
      <rect>
        4 16 8 8 35</rect></_>
    <_>
      <rect>
        8 0 8 8 18</rect></_>
    <_>
      <rect>
        8 4 8 8 24</rect></_>
    <_>
      <rect>
        8 4 8 8 31</rect></_>
    <_>
      <rect>
        8 8 8 8 18</rect></_>
    <_>
      <rect>
        8 8 8 8 22</rect></_>
    <_>
      <rect>
        8 8 8 8 28</rect></_>
    <_>
      <rect>
        8 8 8 8 31</rect></_>
    <_>
      <rect>
        8 12 8 8 2</rect></_>
    <_>
      <rect>
        8 12 8 8 15</rect></_>
    <_>
      <rect>
        8 16 8 8 12</rect></_>
    <_>
      <rect>
        8 16 8 8 16</rect></_>
    <_>
      <rect>
        8 16 8 8 19</rect></_>
    <_>
      <rect>
        8 16 8 8 25</rect></_>
    <_>
      <rect>
        8 16 8 8 26</rect></_>
    <_>
      <rect>
        8 16 8 8 30</rect></_>
    <_>
      <rect>
        12 0 8 8 0</rect></_>
    <_>
      <rect>
        12 0 8 8 2</rect></_>
    <_>
      <rect>
        12 0 8 8 3</rect></_>
    <_>
      <rect>
        12 0 8 8 13</rect></_>
    <_>
      <rect>
        12 0 8 8 21</rect></_>
    <_>
      <rect>
        12 0 8 8 25</rect></_>
    <_>
      <rect>
        12 0 8 8 30</rect></_>
    <_>
      <rect>
        12 4 8 8 5</rect></_>
    <_>
      <rect>
        12 4 8 8 22</rect></_>
    <_>
      <rect>
        12 4 8 8 24</rect></_>
    <_>
      <rect>
        12 4 8 8 25</rect></_>
    <_>
      <rect>
        12 8 8 8 6</rect></_>
    <_>
      <rect>
        12 8 8 8 20</rect></_>
    <_>
      <rect>
        12 12 8 8 7</rect></_>
    <_>
      <rect>
        12 12 8 8 14</rect></_>
    <_>
      <rect>
        12 12 8 8 18</rect></_>
    <_>
      <rect>
        12 12 8 8 19</rect></_>
    <_>
      <rect>
        12 12 8 8 31</rect></_>
    <_>
      <rect>
        12 16 8 8 27</rect></_>
    <_>
      <rect>
        12 16 8 8 28</rect></_>
    <_>
      <rect>
        12 16 8 8 33</rect></_>
    <_>
      <rect>
        12 16 8 8 35</rect></_>
    <_>
      <rect>
        16 0 8 8 1</rect></_>
    <_>
      <rect>
        16 0 8 8 3</rect></_>
    <_>
      <rect>
        16 0 8 8 15</rect></_>
    <_>
      <rect>
        16 0 8 8 27</rect></_>
    <_>
      <rect>
        16 0 8 8 32</rect></_>
    <_>
      <rect>
        16 4 8 8 21</rect></_>
    <_>
      <rect>
        16 8 8 8 31</rect></_>
    <_>
      <rect>
        16 12 8 8 31</rect></_>
    <_>
      <rect>
        16 12 8 8 32</rect></_>
    <_>
      <rect>
        16 16 8 8 4</rect></_>
    <_>
      <rect>
        16 16 8 8 7</rect></_>
    <_>
      <rect>
        16 16 8 8 8</rect></_>
    <_>
      <rect>
        16 16 8 8 18</rect></_>
    <_>
      <rect>
        16 16 8 8 25</rect></_>
    <_>
      <rect>
        16 16 8 8 26</rect></_>
    <_>
      <rect>
        16 16 8 8 27</rect></_>
    <_>
      <rect>
        16 16 8 8 29</rect></_>
    <_>
      <rect>
        16 16 8 8 32</rect></_>
    <_>
      <rect>
        16 16 8 8 35</rect></_>
    <_>
      <rect>
        20 0 8 8 3</rect></_>
    <_>
      <rect>
        20 0 8 8 7</rect></_>
    <_>
      <rect>
        20 0 8 8 10</rect></_>
    <_>
      <rect>
        20 0 8 8 11</rect></_>
    <_>
      <rect>
        20 0 8 8 15</rect></_>
    <_>
      <rect>
        20 0 8 8 16</rect></_>
    <_>
      <rect>
        20 0 8 8 28</rect></_>
    <_>
      <rect>
        20 4 8 8 5</rect></_>
    <_>
      <rect>
        20 4 8 8 6</rect></_>
    <_>
      <rect>
        20 4 8 8 10</rect></_>
    <_>
      <rect>
        20 4 8 8 13</rect></_>
    <_>
      <rect>
        20 4 8 8 15</rect></_>
    <_>
      <rect>
        20 4 8 8 29</rect></_>
    <_>
      <rect>
        20 4 8 8 31</rect></_>
    <_>
      <rect>
        20 4 8 8 33</rect></_>
    <_>
      <rect>
        20 4 8 8 35</rect></_>
    <_>
      <rect>
        20 8 8 8 13</rect></_>
    <_>
      <rect>
        20 8 8 8 22</rect></_>
    <_>
      <rect>
        20 8 8 8 28</rect></_>
    <_>
      <rect>
        20 8 8 8 29</rect></_>
    <_>
      <rect>
        20 8 8 8 30</rect></_>
    <_>
      <rect>
        20 8 8 8 31</rect></_>
    <_>
      <rect>
        20 12 8 8 0</rect></_>
    <_>
      <rect>
        20 12 8 8 1</rect></_>
    <_>
      <rect>
        20 12 8 8 13</rect></_>
    <_>
      <rect>
        20 12 8 8 17</rect></_>
    <_>
      <rect>
        20 12 8 8 21</rect></_>
    <_>
      <rect>
        20 12 8 8 23</rect></_>
    <_>
      <rect>
        20 12 8 8 31</rect></_>
    <_>
      <rect>
        20 12 8 8 32</rect></_>
    <_>
      <rect>
        20 12 8 8 35</rect></_>
    <_>
      <rect>
        20 16 8 8 1</rect></_>
    <_>
      <rect>
        20 16 8 8 8</rect></_>
    <_>
      <rect>
        20 16 8 8 13</rect></_>
    <_>
      <rect>
        20 16 8 8 19</rect></_>
    <_>
      <rect>
        20 16 8 8 28</rect></_>
    <_>
      <rect>
        20 16 8 8 30</rect></_>
    <_>
      <rect>
        20 16 8 8 31</rect></_>
    <_>
      <rect>
        20 16 8 8 32</rect></_>
    <_>
      <rect>
        20 16 8 8 33</rect></_>
    <_>
      <rect>
        20 16 8 8 34</rect></_>
    <_>
      <rect>
        20 16 8 8 35</rect></_>
    <_>
      <rect>
        0 0 8 16 9</rect></_>
    <_>
      <rect>
        0 0 8 16 12</rect></_>
    <_>
      <rect>
        0 0 8 16 13</rect></_>
    <_>
      <rect>
        0 0 8 16 16</rect></_>
    <_>
      <rect>
        0 0 8 16 17</rect></_>
    <_>
      <rect>
        0 0 8 16 21</rect></_>
    <_>
      <rect>
        0 0 8 16 24</rect></_>
    <_>
      <rect>
        0 0 8 16 28</rect></_>
    <_>
      <rect>
        4 0 8 16 3</rect></_>
    <_>
      <rect>
        8 0 8 16 13</rect></_>
    <_>
      <rect>
        8 0 8 16 26</rect></_>
    <_>
      <rect>
        8 0 8 16 32</rect></_>
    <_>
      <rect>
        16 0 8 16 12</rect></_>
    <_>
      <rect>
        16 0 8 16 18</rect></_>
    <_>
      <rect>
        16 0 8 16 23</rect></_>
    <_>
      <rect>
        16 0 8 16 30</rect></_>
    <_>
      <rect>
        16 0 8 16 32</rect></_>
    <_>
      <rect>
        20 0 8 16 10</rect></_>
    <_>
      <rect>
        20 0 8 16 11</rect></_>
    <_>
      <rect>
        20 0 8 16 12</rect></_>
    <_>
      <rect>
        20 0 8 16 19</rect></_>
    <_>
      <rect>
        20 0 8 16 28</rect></_>
    <_>
      <rect>
        0 0 16 8 0</rect></_>
    <_>
      <rect>
        0 0 16 8 6</rect></_>
    <_>
      <rect>
        0 0 16 8 7</rect></_>
    <_>
      <rect>
        0 0 16 8 11</rect></_>
    <_>
      <rect>
        0 0 16 8 12</rect></_>
    <_>
      <rect>
        0 0 16 8 13</rect></_>
    <_>
      <rect>
        0 0 16 8 17</rect></_>
    <_>
      <rect>
        0 4 16 8 2</rect></_>
    <_>
      <rect>
        0 4 16 8 10</rect></_>
    <_>
      <rect>
        0 4 16 8 15</rect></_>
    <_>
      <rect>
        0 4 16 8 20</rect></_>
    <_>
      <rect>
        0 4 16 8 31</rect></_>
    <_>
      <rect>
        0 8 16 8 22</rect></_>
    <_>
      <rect>
        0 12 16 8 13</rect></_>
    <_>
      <rect>
        0 12 16 8 19</rect></_>
    <_>
      <rect>
        0 12 16 8 22</rect></_>
    <_>
      <rect>
        0 12 16 8 24</rect></_>
    <_>
      <rect>
        0 12 16 8 25</rect></_>
    <_>
      <rect>
        0 12 16 8 34</rect></_>
    <_>
      <rect>
        0 16 16 8 0</rect></_>
    <_>
      <rect>
        0 16 16 8 3</rect></_>
    <_>
      <rect>
        0 16 16 8 12</rect></_>
    <_>
      <rect>
        0 16 16 8 13</rect></_>
    <_>
      <rect>
        0 16 16 8 15</rect></_>
    <_>
      <rect>
        0 16 16 8 17</rect></_>
    <_>
      <rect>
        0 16 16 8 19</rect></_>
    <_>
      <rect>
        0 16 16 8 24</rect></_>
    <_>
      <rect>
        0 16 16 8 26</rect></_>
    <_>
      <rect>
        0 16 16 8 30</rect></_>
    <_>
      <rect>
        0 16 16 8 33</rect></_>
    <_>
      <rect>
        0 16 16 8 34</rect></_>
    <_>
      <rect>
        4 0 16 8 5</rect></_>
    <_>
      <rect>
        4 0 16 8 9</rect></_>
    <_>
      <rect>
        4 0 16 8 16</rect></_>
    <_>
      <rect>
        4 0 16 8 25</rect></_>
    <_>
      <rect>
        4 4 16 8 8</rect></_>
    <_>
      <rect>
        4 4 16 8 12</rect></_>
    <_>
      <rect>
        4 4 16 8 21</rect></_>
    <_>
      <rect>
        4 8 16 8 31</rect></_>
    <_>
      <rect>
        4 12 16 8 0</rect></_>
    <_>
      <rect>
        4 12 16 8 3</rect></_>
    <_>
      <rect>
        4 12 16 8 15</rect></_>
    <_>
      <rect>
        4 12 16 8 16</rect></_>
    <_>
      <rect>
        4 12 16 8 19</rect></_>
    <_>
      <rect>
        4 12 16 8 30</rect></_>
    <_>
      <rect>
        4 12 16 8 34</rect></_>
    <_>
      <rect>
        4 16 16 8 1</rect></_>
    <_>
      <rect>
        4 16 16 8 16</rect></_>
    <_>
      <rect>
        4 16 16 8 17</rect></_>
    <_>
      <rect>
        4 16 16 8 26</rect></_>
    <_>
      <rect>
        4 16 16 8 28</rect></_>
    <_>
      <rect>
        4 16 16 8 35</rect></_>
    <_>
      <rect>
        0 0 16 16 10</rect></_>
    <_>
      <rect>
        0 0 16 16 11</rect></_>
    <_>
      <rect>
        0 0 16 16 12</rect></_>
    <_>
      <rect>
        0 0 16 16 19</rect></_>
    <_>
      <rect>
        0 0 16 16 22</rect></_>
    <_>
      <rect>
        0 0 16 16 23</rect></_>
    <_>
      <rect>
        0 0 16 16 24</rect></_>
    <_>
      <rect>
        0 0 16 16 27</rect></_>
    <_>
      <rect>
        0 0 16 16 33</rect></_>
    <_>
      <rect>
        4 0 16 16 2</rect></_>
    <_>
      <rect>
        4 0 16 16 5</rect></_>
    <_>
      <rect>
        4 0 16 16 11</rect></_>
    <_>
      <rect>
        4 0 16 16 12</rect></_>
    <_>
      <rect>
        4 0 16 16 14</rect></_>
    <_>
      <rect>
        4 0 16 16 15</rect></_>
    <_>
      <rect>
        4 0 16 16 17</rect></_>
    <_>
      <rect>
        4 0 16 16 19</rect></_>
    <_>
      <rect>
        4 0 16 16 20</rect></_>
    <_>
      <rect>
        4 0 16 16 28</rect></_>
    <_>
      <rect>
        4 0 16 16 32</rect></_></features></cascade>
</opencv_storage>
